digraph Tree {
node [shape=box] ;
0 [label="X[0] <= 250.0\ngini = 0.469\nsamples = 8\nvalue = [3, 5]"] ;
1 [label="gini = 0.0\nsamples = 3\nvalue = [3, 0]"] ;
0 -> 1 [labeldistance=2.5, labelangle=45, headlabel="True"] ;
2 [label="gini = 0.0\nsamples = 5\nvalue = [0, 5]"] ;
0 -> 2 [labeldistance=2.5, labelangle=-45, headlabel="False"] ;
}